digraph Tree {
node [shape=box, style="filled, rounded", color="black", fontname="helvetica"] ;
edge [fontname="helvetica"] ;
0 [label=<video_view_count &le; 11388.5<br/>gini = 0.489<br/>samples = 14143<br/>value = [6017, 8126]<br/>class = Suspicious>, fillcolor="#cce6f8"] ;
1 [label=<friend &le; 0.999<br/>gini = 0.26<br/>samples = 5588<br/>value = [4731, 857]<br/>class = Not Suspicious>, fillcolor="#ea985d"] ;
0 -> 1 [labeldistance=2.5, labelangle=45, headlabel="True"] ;
2 [label=<friend &le; 0.004<br/>gini = 0.295<br/>samples = 4462<br/>value = [3661, 801]<br/>class = Not Suspicious>, fillcolor="#eb9d64"] ;
1 -> 2 ;
3 [label=<claim_status_opinion &le; 0.988<br/>gini = 0.244<br/>samples = 4267<br/>value = [3661, 606]<br/>class = Not Suspicious>, fillcolor="#e9965a"] ;
2 -> 3 ;
4 [label=<gini = 0.496<br/>samples = 97<br/>value = [53.0, 44.0]<br/>class = Not Suspicious>, fillcolor="#fbeadd"] ;
3 -> 4 ;
5 [label=<gini = 0.233<br/>samples = 4170<br/>value = [3608, 562]<br/>class = Not Suspicious>, fillcolor="#e99558"] ;
3 -> 5 ;
6 [label=<gini = 0.0<br/>samples = 195<br/>value = [0, 195]<br/>class = Suspicious>, fillcolor="#399de5"] ;
2 -> 6 ;
7 [label=<video_duration_sec &le; 26.857<br/>gini = 0.095<br/>samples = 1126<br/>value = [1070, 56]<br/>class = Not Suspicious>, fillcolor="#e68843"] ;
1 -> 7 ;
8 [label=<video_duration_sec &le; 26.357<br/>gini = 0.134<br/>samples = 429<br/>value = [398.0, 31.0]<br/>class = Not Suspicious>, fillcolor="#e78b48"] ;
7 -> 8 ;
9 [label=<gini = 0.13<br/>samples = 428<br/>value = [398.0, 30.0]<br/>class = Not Suspicious>, fillcolor="#e78a48"] ;
8 -> 9 ;
10 [label=<gini = 0.0<br/>samples = 1<br/>value = [0, 1]<br/>class = Suspicious>, fillcolor="#399de5"] ;
8 -> 10 ;
11 [label=<video_view_count &le; 237.0<br/>gini = 0.069<br/>samples = 697<br/>value = [672, 25]<br/>class = Not Suspicious>, fillcolor="#e68640"] ;
7 -> 11 ;
12 [label=<gini = 0.32<br/>samples = 20<br/>value = [16, 4]<br/>class = Not Suspicious>, fillcolor="#eca06a"] ;
11 -> 12 ;
13 [label=<gini = 0.06<br/>samples = 677<br/>value = [656, 21]<br/>class = Not Suspicious>, fillcolor="#e6853f"] ;
11 -> 13 ;
14 [label=<media &le; 1.0<br/>gini = 0.255<br/>samples = 8555<br/>value = [1286, 7269]<br/>class = Suspicious>, fillcolor="#5caeea"] ;
0 -> 14 [labeldistance=2.5, labelangle=-45, headlabel="False"] ;
15 [label=<media &le; 0.0<br/>gini = 0.231<br/>samples = 7962<br/>value = [1062, 6900]<br/>class = Suspicious>, fillcolor="#57ace9"] ;
14 -> 15 ;
16 [label=<claim &le; 1.0<br/>gini = 0.276<br/>samples = 6422<br/>value = [1062, 5360]<br/>class = Suspicious>, fillcolor="#60b0ea"] ;
15 -> 16 ;
17 [label=<gini = 0.239<br/>samples = 5468<br/>value = [760, 4708]<br/>class = Suspicious>, fillcolor="#59ade9"] ;
16 -> 17 ;
18 [label=<gini = 0.433<br/>samples = 954<br/>value = [302, 652]<br/>class = Suspicious>, fillcolor="#95caf1"] ;
16 -> 18 ;
19 [label=<gini = 0.0<br/>samples = 1540<br/>value = [0, 1540]<br/>class = Suspicious>, fillcolor="#399de5"] ;
15 -> 19 ;
20 [label=<internet &le; 0.009<br/>gini = 0.47<br/>samples = 593<br/>value = [224, 369]<br/>class = Suspicious>, fillcolor="#b1d8f5"] ;
14 -> 20 ;
21 [label=<video_view_count &le; 809538.5<br/>gini = 0.492<br/>samples = 396<br/>value = [173, 223]<br/>class = Suspicious>, fillcolor="#d3e9f9"] ;
20 -> 21 ;
22 [label=<gini = 0.479<br/>samples = 332<br/>value = [132.0, 200.0]<br/>class = Suspicious>, fillcolor="#bcdef6"] ;
21 -> 22 ;
23 [label=<gini = 0.46<br/>samples = 64<br/>value = [41, 23]<br/>class = Not Suspicious>, fillcolor="#f4c8a8"] ;
21 -> 23 ;
24 [label=<internet &le; 0.99<br/>gini = 0.384<br/>samples = 197<br/>value = [51, 146]<br/>class = Suspicious>, fillcolor="#7ebfee"] ;
20 -> 24 ;
25 [label=<gini = 0.0<br/>samples = 57<br/>value = [0, 57]<br/>class = Suspicious>, fillcolor="#399de5"] ;
24 -> 25 ;
26 [label=<gini = 0.463<br/>samples = 140<br/>value = [51, 89]<br/>class = Suspicious>, fillcolor="#aad5f4"] ;
24 -> 26 ;
}