digraph Tree {
node [shape=box, style="filled, rounded", color="black", fontname="helvetica"] ;
edge [fontname="helvetica"] ;
0 [label=<video_view_count &le; 11388.5<br/>gini = 0.489<br/>samples = 14143<br/>value = [6017, 8126]<br/>class = Suspicious>, fillcolor="#cce6f8"] ;
1 [label=<friend &le; 0.999<br/>gini = 0.26<br/>samples = 5588<br/>value = [4731, 857]<br/>class = Not Suspicious>, fillcolor="#ea985d"] ;
0 -> 1 [labeldistance=2.5, labelangle=45, headlabel="True"] ;
2 [label=<friend &le; 0.004<br/>gini = 0.295<br/>samples = 4462<br/>value = [3661, 801]<br/>class = Not Suspicious>, fillcolor="#eb9d64"] ;
1 -> 2 ;
3 [label=<claim_status_opinion &le; 0.988<br/>gini = 0.244<br/>samples = 4267<br/>value = [3661, 606]<br/>class = Not Suspicious>, fillcolor="#e9965a"] ;
2 -> 3 ;
4 [label=<claim_status_opinion &le; 0.001<br/>gini = 0.496<br/>samples = 97<br/>value = [53.0, 44.0]<br/>class = Not Suspicious>, fillcolor="#fbeadd"] ;
3 -> 4 ;
5 [label=<discovered &le; 0.428<br/>gini = 0.206<br/>samples = 60<br/>value = [53, 7]<br/>class = Not Suspicious>, fillcolor="#e89253"] ;
4 -> 5 ;
6 [label=<gini = 0.137<br/>samples = 54<br/>value = [50, 4]<br/>class = Not Suspicious>, fillcolor="#e78b49"] ;
5 -> 6 ;
7 [label=<gini = 0.5<br/>samples = 6<br/>value = [3, 3]<br/>class = Not Suspicious>, fillcolor="#ffffff"] ;
5 -> 7 ;
8 [label=<gini = 0.0<br/>samples = 37<br/>value = [0, 37]<br/>class = Suspicious>, fillcolor="#399de5"] ;
4 -> 8 ;
9 [label=<colleague &le; 0.001<br/>gini = 0.233<br/>samples = 4170<br/>value = [3608, 562]<br/>class = Not Suspicious>, fillcolor="#e99558"] ;
3 -> 9 ;
10 [label=<earth &le; 0.004<br/>gini = 0.188<br/>samples = 2985<br/>value = [2672, 313]<br/>class = Not Suspicious>, fillcolor="#e89050"] ;
9 -> 10 ;
11 [label=<gini = 0.138<br/>samples = 1877<br/>value = [1737, 140]<br/>class = Not Suspicious>, fillcolor="#e78b49"] ;
10 -> 11 ;
12 [label=<gini = 0.264<br/>samples = 1108<br/>value = [935, 173]<br/>class = Not Suspicious>, fillcolor="#ea985e"] ;
10 -> 12 ;
13 [label=<colleague &le; 0.999<br/>gini = 0.332<br/>samples = 1185<br/>value = [936, 249]<br/>class = Not Suspicious>, fillcolor="#eca36e"] ;
9 -> 13 ;
14 [label=<gini = 0.0<br/>samples = 182<br/>value = [0, 182]<br/>class = Suspicious>, fillcolor="#399de5"] ;
13 -> 14 ;
15 [label=<gini = 0.125<br/>samples = 1003<br/>value = [936, 67]<br/>class = Not Suspicious>, fillcolor="#e78a47"] ;
13 -> 15 ;
16 [label=<gini = 0.0<br/>samples = 195<br/>value = [0, 195]<br/>class = Suspicious>, fillcolor="#399de5"] ;
2 -> 16 ;
17 [label=<video_duration_sec &le; 26.857<br/>gini = 0.095<br/>samples = 1126<br/>value = [1070, 56]<br/>class = Not Suspicious>, fillcolor="#e68843"] ;
1 -> 17 ;
18 [label=<earth &le; 0.063<br/>gini = 0.134<br/>samples = 429<br/>value = [398.0, 31.0]<br/>class = Not Suspicious>, fillcolor="#e78b48"] ;
17 -> 18 ;
19 [label=<video_duration_sec &le; 26.357<br/>gini = 0.13<br/>samples = 428<br/>value = [398.0, 30.0]<br/>class = Not Suspicious>, fillcolor="#e78a48"] ;
18 -> 19 ;
20 [label=<video_view_count &le; 5968.0<br/>gini = 0.127<br/>samples = 427<br/>value = [398.0, 29.0]<br/>class = Not Suspicious>, fillcolor="#e78a47"] ;
19 -> 20 ;
21 [label=<gini = 0.177<br/>samples = 265<br/>value = [239, 26]<br/>class = Not Suspicious>, fillcolor="#e88f4f"] ;
20 -> 21 ;
22 [label=<gini = 0.036<br/>samples = 162<br/>value = [159, 3]<br/>class = Not Suspicious>, fillcolor="#e5833d"] ;
20 -> 22 ;
23 [label=<gini = 0.0<br/>samples = 1<br/>value = [0, 1]<br/>class = Suspicious>, fillcolor="#399de5"] ;
19 -> 23 ;
24 [label=<gini = 0.0<br/>samples = 1<br/>value = [0, 1]<br/>class = Suspicious>, fillcolor="#399de5"] ;
18 -> 24 ;
25 [label=<video_view_count &le; 237.0<br/>gini = 0.069<br/>samples = 697<br/>value = [672, 25]<br/>class = Not Suspicious>, fillcolor="#e68640"] ;
17 -> 25 ;
26 [label=<video_like_count &le; 57.5<br/>gini = 0.32<br/>samples = 20<br/>value = [16, 4]<br/>class = Not Suspicious>, fillcolor="#eca06a"] ;
25 -> 26 ;
27 [label=<gini = 0.0<br/>samples = 16<br/>value = [16, 0]<br/>class = Not Suspicious>, fillcolor="#e58139"] ;
26 -> 27 ;
28 [label=<gini = 0.0<br/>samples = 4<br/>value = [0, 4]<br/>class = Suspicious>, fillcolor="#399de5"] ;
26 -> 28 ;
29 [label=<video_share_count &le; 1257.0<br/>gini = 0.06<br/>samples = 677<br/>value = [656, 21]<br/>class = Not Suspicious>, fillcolor="#e6853f"] ;
25 -> 29 ;
30 [label=<video_share_count &le; 7.906<br/>gini = 0.058<br/>samples = 674<br/>value = [654, 20]<br/>class = Not Suspicious>, fillcolor="#e6853f"] ;
29 -> 30 ;
31 [label=<gini = 0.171<br/>samples = 53<br/>value = [48, 5]<br/>class = Not Suspicious>, fillcolor="#e88e4e"] ;
30 -> 31 ;
32 [label=<gini = 0.047<br/>samples = 621<br/>value = [606, 15]<br/>class = Not Suspicious>, fillcolor="#e6843e"] ;
30 -> 32 ;
33 [label=<verified_status_verified &le; 0.5<br/>gini = 0.444<br/>samples = 3<br/>value = [2, 1]<br/>class = Not Suspicious>, fillcolor="#f2c09c"] ;
29 -> 33 ;
34 [label=<gini = 0.0<br/>samples = 1<br/>value = [0, 1]<br/>class = Suspicious>, fillcolor="#399de5"] ;
33 -> 34 ;
35 [label=<gini = 0.0<br/>samples = 2<br/>value = [2, 0]<br/>class = Not Suspicious>, fillcolor="#e58139"] ;
33 -> 35 ;
36 [label=<media &le; 1.0<br/>gini = 0.255<br/>samples = 8555<br/>value = [1286, 7269]<br/>class = Suspicious>, fillcolor="#5caeea"] ;
0 -> 36 [labeldistance=2.5, labelangle=-45, headlabel="False"] ;
37 [label=<media &le; 0.0<br/>gini = 0.231<br/>samples = 7962<br/>value = [1062, 6900]<br/>class = Suspicious>, fillcolor="#57ace9"] ;
36 -> 37 ;
38 [label=<claim &le; 1.0<br/>gini = 0.276<br/>samples = 6422<br/>value = [1062, 5360]<br/>class = Suspicious>, fillcolor="#60b0ea"] ;
37 -> 38 ;
39 [label=<claim &le; 0.001<br/>gini = 0.239<br/>samples = 5468<br/>value = [760, 4708]<br/>class = Suspicious>, fillcolor="#59ade9"] ;
38 -> 39 ;
40 [label=<internet &le; 1.0<br/>gini = 0.312<br/>samples = 3935<br/>value = [760, 3175]<br/>class = Suspicious>, fillcolor="#68b4eb"] ;
39 -> 40 ;
41 [label=<gini = 0.273<br/>samples = 3124<br/>value = [510, 2614]<br/>class = Suspicious>, fillcolor="#60b0ea"] ;
40 -> 41 ;
42 [label=<gini = 0.426<br/>samples = 811<br/>value = [250, 561]<br/>class = Suspicious>, fillcolor="#91c9f1"] ;
40 -> 42 ;
43 [label=<gini = 0.0<br/>samples = 1533<br/>value = [0, 1533]<br/>class = Suspicious>, fillcolor="#399de5"] ;
39 -> 43 ;
44 [label=<online &le; 0.004<br/>gini = 0.433<br/>samples = 954<br/>value = [302, 652]<br/>class = Suspicious>, fillcolor="#95caf1"] ;
38 -> 44 ;
45 [label=<video_duration_sec &le; 45.53<br/>gini = 0.475<br/>samples = 522<br/>value = [203, 319]<br/>class = Suspicious>, fillcolor="#b7dbf6"] ;
44 -> 45 ;
46 [label=<gini = 0.453<br/>samples = 410<br/>value = [142, 268]<br/>class = Suspicious>, fillcolor="#a2d1f3"] ;
45 -> 46 ;
47 [label=<gini = 0.496<br/>samples = 112<br/>value = [61.0, 51.0]<br/>class = Not Suspicious>, fillcolor="#fbeadf"] ;
45 -> 47 ;
48 [label=<online &le; 1.0<br/>gini = 0.353<br/>samples = 432<br/>value = [99, 333]<br/>class = Suspicious>, fillcolor="#74baed"] ;
44 -> 48 ;
49 [label=<gini = 0.0<br/>samples = 152<br/>value = [0, 152]<br/>class = Suspicious>, fillcolor="#399de5"] ;
48 -> 49 ;
50 [label=<gini = 0.457<br/>samples = 280<br/>value = [99, 181]<br/>class = Suspicious>, fillcolor="#a5d3f3"] ;
48 -> 50 ;
51 [label=<gini = 0.0<br/>samples = 1540<br/>value = [0, 1540]<br/>class = Suspicious>, fillcolor="#399de5"] ;
37 -> 51 ;
52 [label=<internet &le; 0.009<br/>gini = 0.47<br/>samples = 593<br/>value = [224, 369]<br/>class = Suspicious>, fillcolor="#b1d8f5"] ;
36 -> 52 ;
53 [label=<video_view_count &le; 809538.5<br/>gini = 0.492<br/>samples = 396<br/>value = [173, 223]<br/>class = Suspicious>, fillcolor="#d3e9f9"] ;
52 -> 53 ;
54 [label=<video_view_count &le; 145227.5<br/>gini = 0.479<br/>samples = 332<br/>value = [132.0, 200.0]<br/>class = Suspicious>, fillcolor="#bcdef6"] ;
53 -> 54 ;
55 [label=<video_share_count &le; 1323.5<br/>gini = 0.454<br/>samples = 46<br/>value = [30, 16]<br/>class = Not Suspicious>, fillcolor="#f3c4a3"] ;
54 -> 55 ;
56 [label=<gini = 0.463<br/>samples = 11<br/>value = [4, 7]<br/>class = Suspicious>, fillcolor="#aad5f4"] ;
55 -> 56 ;
57 [label=<gini = 0.382<br/>samples = 35<br/>value = [26, 9]<br/>class = Not Suspicious>, fillcolor="#eead7e"] ;
55 -> 57 ;
58 [label=<video_view_count &le; 761906.0<br/>gini = 0.459<br/>samples = 286<br/>value = [102, 184]<br/>class = Suspicious>, fillcolor="#a7d3f3"] ;
54 -> 58 ;
59 [label=<gini = 0.469<br/>samples = 271<br/>value = [102, 169]<br/>class = Suspicious>, fillcolor="#b1d8f5"] ;
58 -> 59 ;
60 [label=<gini = 0.0<br/>samples = 15<br/>value = [0, 15]<br/>class = Suspicious>, fillcolor="#399de5"] ;
58 -> 60 ;
61 [label=<read &le; 0.387<br/>gini = 0.46<br/>samples = 64<br/>value = [41, 23]<br/>class = Not Suspicious>, fillcolor="#f4c8a8"] ;
53 -> 61 ;
62 [label=<video_share_count &le; 149510.5<br/>gini = 0.365<br/>samples = 50<br/>value = [38, 12]<br/>class = Not Suspicious>, fillcolor="#eda978"] ;
61 -> 62 ;
63 [label=<gini = 0.303<br/>samples = 43<br/>value = [35, 8]<br/>class = Not Suspicious>, fillcolor="#eb9e66"] ;
62 -> 63 ;
64 [label=<gini = 0.49<br/>samples = 7<br/>value = [3, 4]<br/>class = Suspicious>, fillcolor="#cee6f8"] ;
62 -> 64 ;
65 [label=<video_comment_count &le; 44.0<br/>gini = 0.337<br/>samples = 14<br/>value = [3, 11]<br/>class = Suspicious>, fillcolor="#6fb8ec"] ;
61 -> 65 ;
66 [label=<gini = 0.0<br/>samples = 1<br/>value = [1, 0]<br/>class = Not Suspicious>, fillcolor="#e58139"] ;
65 -> 66 ;
67 [label=<gini = 0.26<br/>samples = 13<br/>value = [2, 11]<br/>class = Suspicious>, fillcolor="#5dafea"] ;
65 -> 67 ;
68 [label=<internet &le; 0.99<br/>gini = 0.384<br/>samples = 197<br/>value = [51, 146]<br/>class = Suspicious>, fillcolor="#7ebfee"] ;
52 -> 68 ;
69 [label=<gini = 0.0<br/>samples = 57<br/>value = [0, 57]<br/>class = Suspicious>, fillcolor="#399de5"] ;
68 -> 69 ;
70 [label=<video_view_count &le; 103790.0<br/>gini = 0.463<br/>samples = 140<br/>value = [51, 89]<br/>class = Suspicious>, fillcolor="#aad5f4"] ;
68 -> 70 ;
71 [label=<world &le; 0.2<br/>gini = 0.469<br/>samples = 16<br/>value = [10, 6]<br/>class = Not Suspicious>, fillcolor="#f5cdb0"] ;
70 -> 71 ;
72 [label=<gini = 0.355<br/>samples = 13<br/>value = [10, 3]<br/>class = Not Suspicious>, fillcolor="#eda774"] ;
71 -> 72 ;
73 [label=<gini = 0.0<br/>samples = 3<br/>value = [0, 3]<br/>class = Suspicious>, fillcolor="#399de5"] ;
71 -> 73 ;
74 [label=<video_duration_sec &le; 9.619<br/>gini = 0.443<br/>samples = 124<br/>value = [41, 83]<br/>class = Suspicious>, fillcolor="#9bcdf2"] ;
70 -> 74 ;
75 [label=<gini = 0.0<br/>samples = 11<br/>value = [0, 11]<br/>class = Suspicious>, fillcolor="#399de5"] ;
74 -> 75 ;
76 [label=<gini = 0.462<br/>samples = 113<br/>value = [41, 72]<br/>class = Suspicious>, fillcolor="#aad5f4"] ;
74 -> 76 ;
}